#pragma once
#include <cstdarg>

namespace Eloquent {
  namespace ML {
    namespace Port {
      class RandomForestRegressor {
        public:
          /**
           * Predict class for features vector
           */
          float predict(float * x) {
            float y_pred = 0;
            // tree #1
            if (x[1] <= 3985.0267333984375) {
              if (x[1] <= 881.0) {
                if (x[1] <= 17.0) {
                  if (x[0] <= 1591486656.0) {
                    if (x[0] <= 1591224320.0) {
                      y_pred += 1.7993996446226992;
                    } else {
                      y_pred += 3.2483625546991868;
                    }
                  } else {
                    if (x[0] <= 1591528064.0) {
                      y_pred += 65.57449639353334;
                    } else {
                      y_pred += 4.278312913506887;
                    }
                  }
                } else {
                  if (x[1] <= 320.5892791748047) {
                    if (x[1] <= 86.27678680419922) {
                      y_pred += 11.9618808713;
                    } else {
                      y_pred += 8.392038364680001;
                    }
                  } else {
                    if (x[1] <= 331.0267791748047) {
                      y_pred += 24.98573574;
                    } else {
                      y_pred += 12.36258319502913;
                    }
                  }
                }
              } else {
                if (x[1] <= 1952.4196166992188) {
                  if (x[0] <= 1589957120.0) {
                    if (x[0] <= 1589740160.0) {
                      y_pred += 17.668347791666665;
                    } else {
                      y_pred += 8.980493458;
                    }
                  } else {
                    if (x[0] <= 1590018752.0) {
                      y_pred += 39.97856214;
                    } else {
                      y_pred += 18.7938027;
                    }
                  }
                } else {
                  if (x[1] <= 3324.267822265625) {
                    if (x[0] <= 1590795392.0) {
                      y_pred += 21.609573240288892;
                    } else {
                      y_pred += 28.905040494545457;
                    }
                  } else {
                    if (x[0] <= 1590519104.0) {
                      y_pred += 29.006949535000004;
                    } else {
                      y_pred += 38.51294664;
                    }
                  }
                }
              }
            } else {
              if (x[1] <= 7198.75) {
                if (x[1] <= 5553.044677734375) {
                  if (x[0] <= 1592167488.0) {
                    if (x[0] <= 1590556480.0) {
                      y_pred += 42.91659650105263;
                    } else {
                      y_pred += 50.85217012519609;
                    }
                  } else {
                    if (x[0] <= 1592330816.0) {
                      y_pred += 76.54450131363636;
                    } else {
                      y_pred += 50.64681735;
                    }
                  }
                } else {
                  if (x[0] <= 1592370048.0) {
                    if (x[0] <= 1589794176.0) {
                      y_pred += 68.5399567921739;
                    } else {
                      y_pred += 59.16766760598484;
                    }
                  } else {
                    if (x[1] <= 6778.196533203125) {
                      y_pred += 80.1155450009091;
                    } else {
                      y_pred += 52.7360075;
                    }
                  }
                }
              } else {
                if (x[1] <= 9542.28564453125) {
                  if (x[0] <= 1592197248.0) {
                    if (x[0] <= 1590781952.0) {
                      y_pred += 67.38571949830187;
                    } else {
                      y_pred += 73.51719598390625;
                    }
                  } else {
                    if (x[0] <= 1592204416.0) {
                      y_pred += 89.61062402714286;
                    } else {
                      y_pred += 84.07386526111112;
                    }
                  }
                } else {
                  if (x[1] <= 10848.6787109375) {
                    if (x[0] <= 1590049792.0) {
                      y_pred += 86.38040455849999;
                    } else {
                      y_pred += 79.00530929836957;
                    }
                  } else {
                    if (x[0] <= 1590125440.0) {
                      y_pred += 79.22101035411765;
                    } else {
                      y_pred += 85.73304406208332;
                    }
                  }
                }
              }
            }

            // tree #2
            if (x[1] <= 3574.78564453125) {
              if (x[1] <= 743.8482055664062) {
                if (x[1] <= 16.8125) {
                  if (x[0] <= 1592091904.0) {
                    if (x[0] <= 1591224768.0) {
                      y_pred += 1.7690320593263171;
                    } else {
                      y_pred += 2.8589397035158135;
                    }
                  } else {
                    if (x[0] <= 1592132416.0) {
                      y_pred += 77.14742890942856;
                    } else {
                      y_pred += 1.762999722068966;
                    }
                  }
                } else {
                  if (x[1] <= 249.6875) {
                    if (x[1] <= 55.276784896850586) {
                      y_pred += 12.763547077666667;
                    } else {
                      y_pred += 7.7755643261707315;
                    }
                  } else {
                    if (x[0] <= 1589589056.0) {
                      y_pred += 17.0636603925;
                    } else {
                      y_pred += 11.736979097154636;
                    }
                  }
                }
              } else {
                if (x[1] <= 1990.7142944335938) {
                  if (x[1] <= 1351.375) {
                    if (x[0] <= 1589829696.0) {
                      y_pred += 9.595801632222223;
                    } else {
                      y_pred += 15.672793480727275;
                    }
                  } else {
                    if (x[1] <= 1450.7857055664062) {
                      y_pred += 26.46335775923077;
                    } else {
                      y_pred += 19.885272384662496;
                    }
                  }
                } else {
                  if (x[0] <= 1591315200.0) {
                    if (x[0] <= 1589554816.0) {
                      y_pred += 51.87084277;
                    } else {
                      y_pred += 24.530897798930223;
                    }
                  } else {
                    if (x[1] <= 3263.25) {
                      y_pred += 29.43861975134616;
                    } else {
                      y_pred += 47.38542765916666;
                    }
                  }
                }
              }
            } else {
              if (x[1] <= 5644.214111328125) {
                if (x[1] <= 4110.357177734375) {
                  if (x[1] <= 3601.8125) {
                    if (x[0] <= 1590175360.0) {
                      y_pred += 86.22060959;
                    } else {
                      y_pred += 65.98658598;
                    }
                  } else {
                    if (x[1] <= 4056.8392333984375) {
                      y_pred += 37.88273621951221;
                    } else {
                      y_pred += 29.341578163333335;
                    }
                  }
                } else {
                  if (x[0] <= 1592153536.0) {
                    if (x[1] <= 4112.259033203125) {
                      y_pred += 80.92480405;
                    } else {
                      y_pred += 47.4535084142029;
                    }
                  } else {
                    if (x[1] <= 4997.5625) {
                      y_pred += 48.69736235714286;
                    } else {
                      y_pred += 79.97998819;
                    }
                  }
                }
              } else {
                if (x[1] <= 9038.66943359375) {
                  if (x[0] <= 1589880576.0) {
                    if (x[1] <= 8828.4287109375) {
                      y_pred += 75.74412532339284;
                    } else {
                      y_pred += 53.35527298;
                    }
                  } else {
                    if (x[0] <= 1590898112.0) {
                      y_pred += 58.69809848985295;
                    } else {
                      y_pred += 69.002625376385;
                    }
                  }
                } else {
                  if (x[1] <= 10760.65185546875) {
                    if (x[1] <= 10742.65185546875) {
                      y_pred += 80.01561259653224;
                    } else {
                      y_pred += 57.65545564;
                    }
                  } else {
                    if (x[0] <= 1590046208.0) {
                      y_pred += 77.90315123384616;
                    } else {
                      y_pred += 85.41924181152176;
                    }
                  }
                }
              }
            }

            // tree #3
            if (x[1] <= 3316.71435546875) {
              if (x[1] <= 743.8482055664062) {
                if (x[1] <= 75.71428680419922) {
                  if (x[0] <= 1592091456.0) {
                    if (x[0] <= 1591224768.0) {
                      y_pred += 1.730661521167173;
                    } else {
                      y_pred += 3.9126918690274737;
                    }
                  } else {
                    if (x[0] <= 1592131072.0) {
                      y_pred += 62.89389421984616;
                    } else {
                      y_pred += 2.71755453183582;
                    }
                  }
                } else {
                  if (x[0] <= 1591058240.0) {
                    if (x[0] <= 1590864320.0) {
                      y_pred += 10.459372442933331;
                    } else {
                      y_pred += 4.859361993272727;
                    }
                  } else {
                    if (x[0] <= 1591383168.0) {
                      y_pred += 14.807005962266665;
                    } else {
                      y_pred += 11.470995292744185;
                    }
                  }
                }
              } else {
                if (x[1] <= 1952.4196166992188) {
                  if (x[0] <= 1589957568.0) {
                    if (x[0] <= 1589716352.0) {
                      y_pred += 17.260820466363636;
                    } else {
                      y_pred += 11.07551796575;
                    }
                  } else {
                    if (x[0] <= 1590043968.0) {
                      y_pred += 34.207883426;
                    } else {
                      y_pred += 18.529487429662073;
                    }
                  }
                } else {
                  if (x[0] <= 1591166208.0) {
                    if (x[0] <= 1589772608.0) {
                      y_pred += 12.849591906166665;
                    } else {
                      y_pred += 22.61031508255814;
                    }
                  } else {
                    if (x[1] <= 2244.5625) {
                      y_pred += 38.11166709285714;
                    } else {
                      y_pred += 28.73533051407407;
                    }
                  }
                }
              }
            } else {
              if (x[1] <= 6117.678466796875) {
                if (x[1] <= 4983.0) {
                  if (x[1] <= 3973.169677734375) {
                    if (x[0] <= 1592330816.0) {
                      y_pred += 37.60067698485293;
                    } else {
                      y_pred += 27.00819791857143;
                    }
                  } else {
                    if (x[1] <= 4651.0625) {
                      y_pred += 47.28632267988506;
                    } else {
                      y_pred += 37.43390162428572;
                    }
                  }
                } else {
                  if (x[0] <= 1591421376.0) {
                    if (x[1] <= 6016.5) {
                      y_pred += 50.40815089060607;
                    } else {
                      y_pred += 38.164613888;
                    }
                  } else {
                    if (x[1] <= 5798.419677734375) {
                      y_pred += 65.53287938421053;
                    } else {
                      y_pred += 42.841282444545456;
                    }
                  }
                }
              } else {
                if (x[1] <= 8540.1875) {
                  if (x[0] <= 1589532288.0) {
                    if (x[1] <= 7994.1875) {
                      y_pred += 83.73843914666666;
                    } else {
                      y_pred += 89.89780987;
                    }
                  } else {
                    if (x[1] <= 7879.857177734375) {
                      y_pred += 64.56486500527274;
                    } else {
                      y_pred += 70.58182429906977;
                    }
                  }
                } else {
                  if (x[1] <= 11346.84521484375) {
                    if (x[1] <= 11286.39306640625) {
                      y_pred += 77.71021976330002;
                    } else {
                      y_pred += 61.11668544222222;
                    }
                  } else {
                    if (x[0] <= 1589999872.0) {
                      y_pred += 67.83109779333334;
                    } else {
                      y_pred += 85.805757281375;
                    }
                  }
                }
              }
            }

            // tree #4
            if (x[1] <= 3466.3482666015625) {
              if (x[1] <= 988.8125) {
                if (x[1] <= 17.0) {
                  if (x[0] <= 1592091904.0) {
                    if (x[0] <= 1591224768.0) {
                      y_pred += 1.9466709742098953;
                    } else {
                      y_pred += 3.4796257706198976;
                    }
                  } else {
                    if (x[0] <= 1592131520.0) {
                      y_pred += 77.95075570466666;
                    } else {
                      y_pred += 2.065513584496;
                    }
                  }
                } else {
                  if (x[0] <= 1591058240.0) {
                    if (x[1] <= 254.11607360839844) {
                      y_pred += 7.5554522613333335;
                    } else {
                      y_pred += 11.19668241551428;
                    }
                  } else {
                    if (x[1] <= 898.5714111328125) {
                      y_pred += 12.60741017275904;
                    } else {
                      y_pred += 21.973706196666665;
                    }
                  }
                }
              } else {
                if (x[1] <= 1995.7857055664062) {
                  if (x[0] <= 1589772992.0) {
                    if (x[0] <= 1589739712.0) {
                      y_pred += 18.891452259999998;
                    } else {
                      y_pred += 4.646617022571428;
                    }
                  } else {
                    if (x[1] <= 1699.5714721679688) {
                      y_pred += 19.025590195584414;
                    } else {
                      y_pred += 23.670918070978725;
                    }
                  }
                } else {
                  if (x[0] <= 1591756160.0) {
                    if (x[0] <= 1589554816.0) {
                      y_pred += 51.87084277;
                    } else {
                      y_pred += 24.963009832673464;
                    }
                  } else {
                    if (x[1] <= 3162.5) {
                      y_pred += 34.02712273703704;
                    } else {
                      y_pred += 47.25783458777778;
                    }
                  }
                }
              }
            } else {
              if (x[1] <= 6758.21435546875) {
                if (x[1] <= 5101.66064453125) {
                  if (x[1] <= 3483.7232666015625) {
                    y_pred += 89.96576104;
                  } else {
                    if (x[0] <= 1589876544.0) {
                      y_pred += 48.979684873928576;
                    } else {
                      y_pred += 38.21883374933823;
                    }
                  }
                } else {
                  if (x[0] <= 1590902976.0) {
                    if (x[1] <= 6415.4287109375) {
                      y_pred += 49.17072981298246;
                    } else {
                      y_pred += 61.70813914851851;
                    }
                  } else {
                    if (x[1] <= 5798.982177734375) {
                      y_pred += 68.88847567947367;
                    } else {
                      y_pred += 58.61111710757577;
                    }
                  }
                }
              } else {
                if (x[1] <= 10199.5) {
                  if (x[0] <= 1591076288.0) {
                    if (x[1] <= 7975.678466796875) {
                      y_pred += 61.202338836212114;
                    } else {
                      y_pred += 72.58313123888888;
                    }
                  } else {
                    if (x[1] <= 9855.125) {
                      y_pred += 76.35626928727271;
                    } else {
                      y_pred += 63.89567606888889;
                    }
                  }
                } else {
                  if (x[1] <= 11356.0537109375) {
                    if (x[1] <= 11298.64306640625) {
                      y_pred += 81.54732997625001;
                    } else {
                      y_pred += 60.454650836666666;
                    }
                  } else {
                    if (x[0] <= 1590000320.0) {
                      y_pred += 80.09449183166667;
                    } else {
                      y_pred += 86.08829681708332;
                    }
                  }
                }
              }
            }

            // tree #5
            if (x[1] <= 3537.919677734375) {
              if (x[1] <= 892.3214416503906) {
                if (x[1] <= 24.4375) {
                  if (x[0] <= 1592092352.0) {
                    if (x[0] <= 1591224768.0) {
                      y_pred += 1.7906849985029403;
                    } else {
                      y_pred += 3.3848201091841363;
                    }
                  } else {
                    if (x[0] <= 1592132864.0) {
                      y_pred += 76.03373716413334;
                    } else {
                      y_pred += 2.51257526122807;
                    }
                  }
                } else {
                  if (x[1] <= 252.35713958740234) {
                    if (x[1] <= 199.21428680419922) {
                      y_pred += 9.133654975666666;
                    } else {
                      y_pred += 2.606055698;
                    }
                  } else {
                    if (x[0] <= 1589697920.0) {
                      y_pred += 15.843480818461538;
                    } else {
                      y_pred += 11.89343552;
                    }
                  }
                }
              } else {
                if (x[1] <= 1952.4196166992188) {
                  if (x[1] <= 1616.5357055664062) {
                    if (x[1] <= 917.7142944335938) {
                      y_pred += 26.594557996000002;
                    } else {
                      y_pred += 16.00259428864368;
                    }
                  } else {
                    if (x[1] <= 1716.5625) {
                      y_pred += 25.438981440173915;
                    } else {
                      y_pred += 19.5985304083;
                    }
                  }
                } else {
                  if (x[1] <= 3271.294677734375) {
                    if (x[1] <= 2244.5625) {
                      y_pred += 32.260075631875004;
                    } else {
                      y_pred += 26.239109553181805;
                    }
                  } else {
                    if (x[1] <= 3274.375) {
                      y_pred += 75.09953158;
                    } else {
                      y_pred += 31.793526195;
                    }
                  }
                }
              }
            } else {
              if (x[1] <= 6218.9375) {
                if (x[1] <= 4997.5625) {
                  if (x[0] <= 1590555584.0) {
                    if (x[0] <= 1589912960.0) {
                      y_pred += 48.37971555318182;
                    } else {
                      y_pred += 30.54842277548388;
                    }
                  } else {
                    if (x[0] <= 1590570432.0) {
                      y_pred += 73.037111556;
                    } else {
                      y_pred += 43.341090181219506;
                    }
                  }
                } else {
                  if (x[0] <= 1590902080.0) {
                    if (x[0] <= 1589704192.0) {
                      y_pred += 57.534447233846144;
                    } else {
                      y_pred += 43.885396086363635;
                    }
                  } else {
                    if (x[0] <= 1592109888.0) {
                      y_pred += 57.15328446755555;
                    } else {
                      y_pred += 68.86824441052632;
                    }
                  }
                }
              } else {
                if (x[1] <= 9352.71435546875) {
                  if (x[0] <= 1591766592.0) {
                    if (x[1] <= 6819.75) {
                      y_pred += 60.446417342881354;
                    } else {
                      y_pred += 67.47442232217571;
                    }
                  } else {
                    if (x[0] <= 1591985216.0) {
                      y_pred += 79.3315128175;
                    } else {
                      y_pred += 71.11138718529412;
                    }
                  }
                } else {
                  if (x[1] <= 10590.08056640625) {
                    if (x[0] <= 1591593792.0) {
                      y_pred += 77.64909864213335;
                    } else {
                      y_pred += 83.34598697269232;
                    }
                  } else {
                    if (x[1] <= 12505.07177734375) {
                      y_pred += 83.58569989504423;
                    } else {
                      y_pred += 88.19471879500001;
                    }
                  }
                }
              }
            }

            // tree #6
            if (x[1] <= 3453.8125) {
              if (x[1] <= 713.4285583496094) {
                if (x[1] <= 17.0) {
                  if (x[0] <= 1592091904.0) {
                    if (x[0] <= 1591225216.0) {
                      y_pred += 1.6442758531676214;
                    } else {
                      y_pred += 3.437220447960836;
                    }
                  } else {
                    if (x[0] <= 1592133312.0) {
                      y_pred += 64.075271664;
                    } else {
                      y_pred += 2.266138927990384;
                    }
                  }
                } else {
                  if (x[0] <= 1592376768.0) {
                    if (x[0] <= 1591036224.0) {
                      y_pred += 9.167363934093748;
                    } else {
                      y_pred += 12.240508310802632;
                    }
                  } else {
                    if (x[0] <= 1592397504.0) {
                      y_pred += 5.725938605;
                    } else {
                      y_pred += 4.2936087866;
                    }
                  }
                }
              } else {
                if (x[1] <= 1991.7857055664062) {
                  if (x[0] <= 1589772992.0) {
                    if (x[0] <= 1589740160.0) {
                      y_pred += 17.894540389444444;
                    } else {
                      y_pred += 4.910633802444445;
                    }
                  } else {
                    if (x[0] <= 1590019200.0) {
                      y_pred += 27.455893367857147;
                    } else {
                      y_pred += 18.351063241939393;
                    }
                  }
                } else {
                  if (x[0] <= 1592101312.0) {
                    if (x[1] <= 2056.9285888671875) {
                      y_pred += 53.99065973;
                    } else {
                      y_pred += 26.217902627632476;
                    }
                  } else {
                    if (x[0] <= 1592128320.0) {
                      y_pred += 64.12922999333333;
                    } else {
                      y_pred += 32.04435107384615;
                    }
                  }
                }
              }
            } else {
              if (x[1] <= 6375.09814453125) {
                if (x[1] <= 4182.25) {
                  if (x[1] <= 3489.3482666015625) {
                    if (x[0] <= 1591763840.0) {
                      y_pred += 89.96576104;
                    } else {
                      y_pred += 41.00272721;
                    }
                  } else {
                    if (x[0] <= 1589904448.0) {
                      y_pred += 48.40870510727272;
                    } else {
                      y_pred += 37.00267774936508;
                    }
                  }
                } else {
                  if (x[0] <= 1590982144.0) {
                    if (x[1] <= 4404.803466796875) {
                      y_pred += 68.93600178374999;
                    } else {
                      y_pred += 46.863308072019244;
                    }
                  } else {
                    if (x[0] <= 1590997056.0) {
                      y_pred += 80.40188102;
                    } else {
                      y_pred += 54.66231067519609;
                    }
                  }
                }
              } else {
                if (x[1] <= 9188.75) {
                  if (x[0] <= 1591769280.0) {
                    if (x[1] <= 7446.205322265625) {
                      y_pred += 60.84358476011628;
                    } else {
                      y_pred += 69.09529549616347;
                    }
                  } else {
                    if (x[0] <= 1591950592.0) {
                      y_pred += 81.14547754322582;
                    } else {
                      y_pred += 71.23827536069767;
                    }
                  }
                } else {
                  if (x[1] <= 10598.8125) {
                    if (x[0] <= 1589877440.0) {
                      y_pred += 84.877729799;
                    } else {
                      y_pred += 77.31766354033708;
                    }
                  } else {
                    if (x[1] <= 12487.07177734375) {
                      y_pred += 83.25799870015624;
                    } else {
                      y_pred += 87.64920082333333;
                    }
                  }
                }
              }
            }

            // tree #7
            if (x[1] <= 4135.321533203125) {
              if (x[1] <= 883.8839416503906) {
                if (x[1] <= 17.0) {
                  if (x[0] <= 1592091456.0) {
                    if (x[0] <= 1591484864.0) {
                      y_pred += 1.8606377207980764;
                    } else {
                      y_pred += 4.284828492529661;
                    }
                  } else {
                    if (x[0] <= 1592131968.0) {
                      y_pred += 72.02211335345454;
                    } else {
                      y_pred += 2.300114765834783;
                    }
                  }
                } else {
                  if (x[1] <= 320.5892791748047) {
                    if (x[0] <= 1592333120.0) {
                      y_pred += 9.474142059967214;
                    } else {
                      y_pred += 3.742164128;
                    }
                  } else {
                    if (x[1] <= 331.0267791748047) {
                      y_pred += 24.98573574;
                    } else {
                      y_pred += 12.333613716123715;
                    }
                  }
                }
              } else {
                if (x[1] <= 1973.4285278320312) {
                  if (x[0] <= 1591506432.0) {
                    if (x[1] <= 1230.8125) {
                      y_pred += 13.862632714333332;
                    } else {
                      y_pred += 18.89746340103125;
                    }
                  } else {
                    if (x[0] <= 1591526272.0) {
                      y_pred += 73.94140925333333;
                    } else {
                      y_pred += 23.37583909;
                    }
                  }
                } else {
                  if (x[1] <= 2164.5625) {
                    if (x[1] <= 2132.1875) {
                      y_pred += 34.860915533333326;
                    } else {
                      y_pred += 81.12429687;
                    }
                  } else {
                    if (x[1] <= 3164.0) {
                      y_pred += 25.620673602790006;
                    } else {
                      y_pred += 34.55618006326733;
                    }
                  }
                }
              }
            } else {
              if (x[1] <= 7212.6875) {
                if (x[1] <= 5599.803466796875) {
                  if (x[0] <= 1592167040.0) {
                    if (x[1] <= 4268.169677734375) {
                      y_pred += 55.68812865307692;
                    } else {
                      y_pred += 47.786421227760016;
                    }
                  } else {
                    if (x[0] <= 1592242176.0) {
                      y_pred += 84.58567485750001;
                    } else {
                      y_pred += 55.479118051;
                    }
                  }
                } else {
                  if (x[0] <= 1591762048.0) {
                    if (x[1] <= 5704.71435546875) {
                      y_pred += 73.57443734;
                    } else {
                      y_pred += 57.74539962930771;
                    }
                  } else {
                    if (x[1] <= 6551.571533203125) {
                      y_pred += 61.894593939117655;
                    } else {
                      y_pred += 74.00278826357143;
                    }
                  }
                }
              } else {
                if (x[1] <= 10274.23193359375) {
                  if (x[0] <= 1590818880.0) {
                    if (x[0] <= 1590650112.0) {
                      y_pred += 70.73281674076192;
                    } else {
                      y_pred += 56.99039619263158;
                    }
                  } else {
                    if (x[0] <= 1592196352.0) {
                      y_pred += 75.12671797676828;
                    } else {
                      y_pred += 84.31615068266666;
                    }
                  }
                } else {
                  if (x[1] <= 10520.9375) {
                    if (x[1] <= 10331.9375) {
                      y_pred += 85.53262955857143;
                    } else {
                      y_pred += 76.15721819187499;
                    }
                  } else {
                    if (x[0] <= 1590127680.0) {
                      y_pred += 81.67944134160001;
                    } else {
                      y_pred += 85.45322249499999;
                    }
                  }
                }
              }
            }

            // tree #8
            if (x[1] <= 3445.9910888671875) {
              if (x[1] <= 380.6428527832031) {
                if (x[1] <= 16.8125) {
                  if (x[0] <= 1591224768.0) {
                    if (x[0] <= 1589725824.0) {
                      y_pred += 2.9822250578600005;
                    } else {
                      y_pred += 1.517981043259695;
                    }
                  } else {
                    if (x[0] <= 1591538880.0) {
                      y_pred += 6.040379375510789;
                    } else {
                      y_pred += 2.2049038589415044;
                    }
                  }
                } else {
                  if (x[1] <= 360.8571472167969) {
                    if (x[0] <= 1589567424.0) {
                      y_pred += 14.699152643666666;
                    } else {
                      y_pred += 8.642189799415387;
                    }
                  } else {
                    if (x[1] <= 370.07142639160156) {
                      y_pred += 0.463911888;
                    } else {
                      y_pred += 8.306893174;
                    }
                  }
                }
              } else {
                if (x[1] <= 1987.9285278320312) {
                  if (x[0] <= 1591060480.0) {
                    if (x[1] <= 1732.7857055664062) {
                      y_pred += 12.919029991717393;
                    } else {
                      y_pred += 18.694279668809525;
                    }
                  } else {
                    if (x[1] <= 883.8839416503906) {
                      y_pred += 14.28925688597222;
                    } else {
                      y_pred += 23.664445331411763;
                    }
                  }
                } else {
                  if (x[0] <= 1592107648.0) {
                    if (x[1] <= 2054.357177734375) {
                      y_pred += 42.863943178;
                    } else {
                      y_pred += 26.20664258337499;
                    }
                  } else {
                    if (x[0] <= 1592296640.0) {
                      y_pred += 70.84431170666666;
                    } else {
                      y_pred += 25.139223328333333;
                    }
                  }
                }
              }
            } else {
              if (x[1] <= 7017.642822265625) {
                if (x[1] <= 4937.09814453125) {
                  if (x[1] <= 3601.8125) {
                    if (x[0] <= 1590646016.0) {
                      y_pred += 79.47593505333333;
                    } else {
                      y_pred += 43.47222871923077;
                    }
                  } else {
                    if (x[1] <= 4263.02685546875) {
                      y_pred += 35.211039239833326;
                    } else {
                      y_pred += 42.923985072812506;
                    }
                  }
                } else {
                  if (x[1] <= 6160.357177734375) {
                    if (x[0] <= 1591760704.0) {
                      y_pred += 52.53576866148648;
                    } else {
                      y_pred += 60.46595530742856;
                    }
                  } else {
                    if (x[0] <= 1590049792.0) {
                      y_pred += 74.91170408181819;
                    } else {
                      y_pred += 59.57618590344442;
                    }
                  }
                }
              } else {
                if (x[1] <= 9608.35693359375) {
                  if (x[0] <= 1591073600.0) {
                    if (x[0] <= 1589912512.0) {
                      y_pred += 74.00626830833333;
                    } else {
                      y_pred += 65.13109605175924;
                    }
                  } else {
                    if (x[1] <= 7073.857177734375) {
                      y_pred += 57.385640163999994;
                    } else {
                      y_pred += 74.58729670943661;
                    }
                  }
                } else {
                  if (x[1] <= 10130.28564453125) {
                    if (x[1] <= 9722.79443359375) {
                      y_pred += 87.411786329375;
                    } else {
                      y_pred += 73.24126274774194;
                    }
                  } else {
                    if (x[0] <= 1589999872.0) {
                      y_pred += 79.69494359400001;
                    } else {
                      y_pred += 85.06405057013335;
                    }
                  }
                }
              }
            }

            // tree #9
            if (x[1] <= 3271.294677734375) {
              if (x[1] <= 713.1875) {
                if (x[1] <= 24.4375) {
                  if (x[0] <= 1591487104.0) {
                    if (x[0] <= 1591050624.0) {
                      y_pred += 1.6562753163504276;
                    } else {
                      y_pred += 2.328599261089946;
                    }
                  } else {
                    if (x[0] <= 1591528960.0) {
                      y_pred += 69.63182788376922;
                    } else {
                      y_pred += 2.823064924314669;
                    }
                  }
                } else {
                  if (x[1] <= 252.35713958740234) {
                    if (x[1] <= 217.08036041259766) {
                      y_pred += 8.14672200415;
                    } else {
                      y_pred += 3.419453923666667;
                    }
                  } else {
                    if (x[1] <= 711.1160583496094) {
                      y_pred += 10.681176771461544;
                    } else {
                      y_pred += 0.661827687;
                    }
                  }
                }
              } else {
                if (x[1] <= 1952.4196166992188) {
                  if (x[0] <= 1591253568.0) {
                    if (x[1] <= 1739.142822265625) {
                      y_pred += 13.951260652783136;
                    } else {
                      y_pred += 18.895013453999997;
                    }
                  } else {
                    if (x[1] <= 886.7410583496094) {
                      y_pred += 13.996421360687503;
                    } else {
                      y_pred += 23.447977625031257;
                    }
                  }
                } else {
                  if (x[0] <= 1592255232.0) {
                    if (x[1] <= 2070.4285888671875) {
                      y_pred += 35.44770424875;
                    } else {
                      y_pred += 25.952292027578117;
                    }
                  } else {
                    if (x[1] <= 3185.5) {
                      y_pred += 89.87137471;
                    } else {
                      y_pred += 26.831775835000002;
                    }
                  }
                }
              }
            } else {
              if (x[1] <= 7212.759033203125) {
                if (x[1] <= 5268.615966796875) {
                  if (x[1] <= 3832.1785888671875) {
                    if (x[1] <= 3274.375) {
                      y_pred += 75.09953158;
                    } else {
                      y_pred += 35.59940314055556;
                    }
                  } else {
                    if (x[1] <= 3855.9375) {
                      y_pred += 89.51711632;
                    } else {
                      y_pred += 43.613544925;
                    }
                  }
                } else {
                  if (x[0] <= 1592278208.0) {
                    if (x[0] <= 1592039232.0) {
                      y_pred += 57.798848335219525;
                    } else {
                      y_pred += 44.99213824421052;
                    }
                  } else {
                    if (x[0] <= 1592293056.0) {
                      y_pred += 85.156080055;
                    } else {
                      y_pred += 70.63294302956523;
                    }
                  }
                }
              } else {
                if (x[1] <= 10130.28564453125) {
                  if (x[1] <= 8672.98193359375) {
                    if (x[1] <= 7612.59814453125) {
                      y_pred += 76.64572029717388;
                    } else {
                      y_pred += 66.34995288984616;
                    }
                  } else {
                    if (x[0] <= 1589872512.0) {
                      y_pred += 84.500935194;
                    } else {
                      y_pred += 75.17748134512196;
                    }
                  }
                } else {
                  if (x[0] <= 1591260736.0) {
                    if (x[0] <= 1590000320.0) {
                      y_pred += 80.74152260944444;
                    } else {
                      y_pred += 85.39447758962261;
                    }
                  } else {
                    if (x[1] <= 10736.5) {
                      y_pred += 70.639856925;
                    } else {
                      y_pred += 84.38314818346154;
                    }
                  }
                }
              }
            }

            // tree #10
            if (x[1] <= 3426.205322265625) {
              if (x[1] <= 743.8482055664062) {
                if (x[1] <= 16.8125) {
                  if (x[0] <= 1592090560.0) {
                    if (x[0] <= 1591224768.0) {
                      y_pred += 1.6830191193490034;
                    } else {
                      y_pred += 3.670245896705265;
                    }
                  } else {
                    if (x[0] <= 1592131520.0) {
                      y_pred += 54.258082327;
                    } else {
                      y_pred += 2.8108725167727275;
                    }
                  }
                } else {
                  if (x[1] <= 421.375) {
                    if (x[1] <= 49.071428298950195) {
                      y_pred += 15.396882260199998;
                    } else {
                      y_pred += 9.58806012956962;
                    }
                  } else {
                    if (x[0] <= 1592139136.0) {
                      y_pred += 12.385916371580004;
                    } else {
                      y_pred += 19.943853814999997;
                    }
                  }
                }
              } else {
                if (x[1] <= 1704.0178833007812) {
                  if (x[0] <= 1591253568.0) {
                    if (x[0] <= 1589772096.0) {
                      y_pred += 7.606960319000001;
                    } else {
                      y_pred += 15.013800252803922;
                    }
                  } else {
                    if (x[1] <= 899.9285583496094) {
                      y_pred += 14.608421463416668;
                    } else {
                      y_pred += 23.23522183958333;
                    }
                  }
                } else {
                  if (x[1] <= 1717.5625) {
                    if (x[1] <= 1709.9375) {
                      y_pred += 28.072698219999996;
                    } else {
                      y_pred += 80.62741079;
                    }
                  } else {
                    if (x[1] <= 2540.642822265625) {
                      y_pred += 20.509643363418608;
                    } else {
                      y_pred += 29.291947517938148;
                    }
                  }
                }
              }
            } else {
              if (x[1] <= 7202.625) {
                if (x[1] <= 4997.5625) {
                  if (x[1] <= 4129.357177734375) {
                    if (x[1] <= 4112.259033203125) {
                      y_pred += 39.150957801935476;
                    } else {
                      y_pred += 23.392132278;
                    }
                  } else {
                    if (x[1] <= 4518.892822265625) {
                      y_pred += 50.82255474851853;
                    } else {
                      y_pred += 41.91059790361703;
                    }
                  }
                } else {
                  if (x[0] <= 1591763456.0) {
                    if (x[1] <= 5660.875) {
                      y_pred += 46.5456436348;
                    } else {
                      y_pred += 58.892122117040024;
                    }
                  } else {
                    if (x[0] <= 1591867328.0) {
                      y_pred += 76.67654767933332;
                    } else {
                      y_pred += 63.369345381428566;
                    }
                  }
                }
              } else {
                if (x[1] <= 10130.28564453125) {
                  if (x[0] <= 1590521408.0) {
                    if (x[0] <= 1589955712.0) {
                      y_pred += 76.89238620413045;
                    } else {
                      y_pred += 60.71800885083332;
                    }
                  } else {
                    if (x[1] <= 9997.92822265625) {
                      y_pred += 74.68621981953754;
                    } else {
                      y_pred += 60.194190244999994;
                    }
                  }
                } else {
                  if (x[1] <= 12214.4287109375) {
                    if (x[1] <= 11963.7861328125) {
                      y_pred += 83.58898818771651;
                    } else {
                      y_pred += 74.80713176272728;
                    }
                  } else {
                    if (x[0] <= 1591726080.0) {
                      y_pred += 86.3414251239394;
                    } else {
                      y_pred += 89.35719333333333;
                    }
                  }
                }
              }
            }

            // tree #11
            if (x[1] <= 4143.25) {
              if (x[1] <= 875.3571166992188) {
                if (x[1] <= 85.35714340209961) {
                  if (x[0] <= 1592091904.0) {
                    if (x[0] <= 1591224768.0) {
                      y_pred += 1.7044674130835753;
                    } else {
                      y_pred += 3.3328108174350275;
                    }
                  } else {
                    if (x[0] <= 1592131520.0) {
                      y_pred += 61.246932536;
                    } else {
                      y_pred += 2.3523715443880593;
                    }
                  }
                } else {
                  if (x[1] <= 252.4107208251953) {
                    if (x[1] <= 136.1875) {
                      y_pred += 9.989480846888888;
                    } else {
                      y_pred += 6.782882594;
                    }
                  } else {
                    if (x[0] <= 1589567424.0) {
                      y_pred += 17.653321719999997;
                    } else {
                      y_pred += 11.585538782445543;
                    }
                  }
                }
              } else {
                if (x[1] <= 3150.2142333984375) {
                  if (x[1] <= 1709.9375) {
                    if (x[0] <= 1591036608.0) {
                      y_pred += 14.606903077714286;
                    } else {
                      y_pred += 20.650400121639347;
                    }
                  } else {
                    if (x[1] <= 1716.5625) {
                      y_pred += 74.40515266333334;
                    } else {
                      y_pred += 24.474675082134148;
                    }
                  }
                } else {
                  if (x[1] <= 3166.1429443359375) {
                    if (x[1] <= 3164.0) {
                      y_pred += 29.02023771;
                    } else {
                      y_pred += 89.87137471;
                    }
                  } else {
                    if (x[1] <= 3487.25) {
                      y_pred += 29.4103457672093;
                    } else {
                      y_pred += 36.153297297209306;
                    }
                  }
                }
              }
            } else {
              if (x[1] <= 7202.625) {
                if (x[1] <= 5441.4375) {
                  if (x[0] <= 1591304832.0) {
                    if (x[0] <= 1589902208.0) {
                      y_pred += 49.31670288466668;
                    } else {
                      y_pred += 39.77732063830189;
                    }
                  } else {
                    if (x[0] <= 1591346240.0) {
                      y_pred += 89.89396737;
                    } else {
                      y_pred += 51.31248957044445;
                    }
                  }
                } else {
                  if (x[0] <= 1592278656.0) {
                    if (x[1] <= 5943.071533203125) {
                      y_pred += 53.75673959140625;
                    } else {
                      y_pred += 60.050139903692305;
                    }
                  } else {
                    if (x[1] <= 6969.5) {
                      y_pred += 70.75584024187499;
                    } else {
                      y_pred += 87.241682655;
                    }
                  }
                }
              } else {
                if (x[1] <= 10153.21435546875) {
                  if (x[0] <= 1590137088.0) {
                    if (x[1] <= 10084.77685546875) {
                      y_pred += 79.54872853732145;
                    } else {
                      y_pred += 54.1029089;
                    }
                  } else {
                    if (x[0] <= 1590466048.0) {
                      y_pred += 61.64075323312501;
                    } else {
                      y_pred += 72.46987054367712;
                    }
                  }
                } else {
                  if (x[1] <= 11621.4287109375) {
                    if (x[1] <= 11523.83056640625) {
                      y_pred += 82.5913190823077;
                    } else {
                      y_pred += 69.65405768600002;
                    }
                  } else {
                    if (x[0] <= 1590300928.0) {
                      y_pred += 81.81180474923076;
                    } else {
                      y_pred += 85.84781647044446;
                    }
                  }
                }
              }
            }

            // tree #12
            if (x[1] <= 3790.142822265625) {
              if (x[1] <= 837.7589416503906) {
                if (x[1] <= 75.8125) {
                  if (x[0] <= 1592087424.0) {
                    if (x[0] <= 1591485760.0) {
                      y_pred += 2.061512693070855;
                    } else {
                      y_pred += 4.3331275896289085;
                    }
                  } else {
                    if (x[0] <= 1592131072.0) {
                      y_pred += 54.52432040573333;
                    } else {
                      y_pred += 2.366233811219512;
                    }
                  }
                } else {
                  if (x[1] <= 422.6071472167969) {
                    if (x[0] <= 1589827520.0) {
                      y_pred += 13.765730762857142;
                    } else {
                      y_pred += 9.417947902525427;
                    }
                  } else {
                    if (x[1] <= 827.7589416503906) {
                      y_pred += 13.285388541093752;
                    } else {
                      y_pred += 6.403642561999999;
                    }
                  }
                }
              } else {
                if (x[1] <= 1995.7857055664062) {
                  if (x[0] <= 1591494720.0) {
                    if (x[0] <= 1589772544.0) {
                      y_pred += 9.4577498496;
                    } else {
                      y_pred += 17.446911283717164;
                    }
                  } else {
                    if (x[0] <= 1591550080.0) {
                      y_pred += 63.38422819;
                    } else {
                      y_pred += 19.91265104307353;
                    }
                  }
                } else {
                  if (x[1] <= 3218.8570556640625) {
                    if (x[1] <= 2164.5625) {
                      y_pred += 44.955796387142854;
                    } else {
                      y_pred += 25.364882469008847;
                    }
                  } else {
                    if (x[1] <= 3219.955322265625) {
                      y_pred += 51.87084277;
                    } else {
                      y_pred += 32.91829680140626;
                    }
                  }
                }
              }
            } else {
              if (x[1] <= 7212.6875) {
                if (x[1] <= 5553.044677734375) {
                  if (x[0] <= 1590556480.0) {
                    if (x[0] <= 1589913408.0) {
                      y_pred += 44.490011418125015;
                    } else {
                      y_pred += 34.80428313181819;
                    }
                  } else {
                    if (x[0] <= 1590570432.0) {
                      y_pred += 74.771413425;
                    } else {
                      y_pred += 49.478492219756106;
                    }
                  }
                } else {
                  if (x[1] <= 6996.017822265625) {
                    if (x[0] <= 1590902080.0) {
                      y_pred += 59.71350366857141;
                    } else {
                      y_pred += 66.339466736;
                    }
                  } else {
                    if (x[0] <= 1590176256.0) {
                      y_pred += 54.300251133333326;
                    } else {
                      y_pred += 46.717198673125;
                    }
                  }
                }
              } else {
                if (x[1] <= 8668.85693359375) {
                  if (x[0] <= 1589911168.0) {
                    if (x[0] <= 1589567424.0) {
                      y_pred += 86.619760892;
                    } else {
                      y_pred += 75.88118234894738;
                    }
                  } else {
                    if (x[0] <= 1590898560.0) {
                      y_pred += 63.67977556280001;
                    } else {
                      y_pred += 72.06685742329786;
                    }
                  }
                } else {
                  if (x[1] <= 10217.78564453125) {
                    if (x[0] <= 1590819328.0) {
                      y_pred += 75.1953604654717;
                    } else {
                      y_pred += 80.22446129957143;
                    }
                  } else {
                    if (x[0] <= 1590827840.0) {
                      y_pred += 85.80698045635512;
                    } else {
                      y_pred += 81.95192655426229;
                    }
                  }
                }
              }
            }

            // tree #13
            if (x[1] <= 3466.3482666015625) {
              if (x[1] <= 659.8571472167969) {
                if (x[1] <= 16.714285850524902) {
                  if (x[0] <= 1592091008.0) {
                    if (x[0] <= 1591486656.0) {
                      y_pred += 2.2302948512340692;
                    } else {
                      y_pred += 4.396839749029411;
                    }
                  } else {
                    if (x[0] <= 1592131520.0) {
                      y_pred += 65.60595822372728;
                    } else {
                      y_pred += 2.3121996541140346;
                    }
                  }
                } else {
                  if (x[1] <= 250.9732208251953) {
                    if (x[1] <= 68.875) {
                      y_pred += 11.972892757333334;
                    } else {
                      y_pred += 7.446854594666668;
                    }
                  } else {
                    if (x[1] <= 643.625) {
                      y_pred += 12.333764763871795;
                    } else {
                      y_pred += 7.3093207844000005;
                    }
                  }
                }
              } else {
                if (x[1] <= 1709.375) {
                  if (x[0] <= 1592392896.0) {
                    if (x[0] <= 1592372224.0) {
                      y_pred += 16.717288014156523;
                    } else {
                      y_pred += 33.835192522;
                    }
                  } else {
                    if (x[0] <= 1592394752.0) {
                      y_pred += 11.636295950000001;
                    } else {
                      y_pred += 8.1179915715;
                    }
                  }
                } else {
                  if (x[1] <= 1716.5625) {
                    if (x[0] <= 1590744192.0) {
                      y_pred += 43.29386203;
                    } else {
                      y_pred += 89.96079798;
                    }
                  } else {
                    if (x[1] <= 1990.7142944335938) {
                      y_pred += 18.857476715957446;
                    } else {
                      y_pred += 27.936252340287496;
                    }
                  }
                }
              }
            } else {
              if (x[1] <= 5654.28564453125) {
                if (x[1] <= 4257.490966796875) {
                  if (x[1] <= 3483.0982666015625) {
                    y_pred += 89.96576104;
                  } else {
                    if (x[1] <= 3665.8839111328125) {
                      y_pred += 44.610404639;
                    } else {
                      y_pred += 34.342423707090916;
                    }
                  }
                } else {
                  if (x[0] <= 1591849408.0) {
                    if (x[1] <= 4262.240966796875) {
                      y_pred += 85.61364674;
                    } else {
                      y_pred += 46.20955873302751;
                    }
                  } else {
                    if (x[0] <= 1591869120.0) {
                      y_pred += 75.12364562;
                    } else {
                      y_pred += 54.233748352702705;
                    }
                  }
                }
              } else {
                if (x[1] <= 9301.6875) {
                  if (x[1] <= 7424.509033203125) {
                    if (x[1] <= 5798.419677734375) {
                      y_pred += 81.23538598375;
                    } else {
                      y_pred += 61.38257511268815;
                    }
                  } else {
                    if (x[0] <= 1591076288.0) {
                      y_pred += 68.16156080403361;
                    } else {
                      y_pred += 74.76840343874998;
                    }
                  }
                } else {
                  if (x[1] <= 10598.8125) {
                    if (x[0] <= 1590819328.0) {
                      y_pred += 76.39302671607844;
                    } else {
                      y_pred += 80.58293247795456;
                    }
                  } else {
                    if (x[1] <= 12445.3037109375) {
                      y_pred += 84.15538211135595;
                    } else {
                      y_pred += 87.69756869454545;
                    }
                  }
                }
              }
            }

            // tree #14
            if (x[1] <= 3574.78564453125) {
              if (x[1] <= 1134.2946166992188) {
                if (x[1] <= 255.41963958740234) {
                  if (x[0] <= 1591486656.0) {
                    if (x[1] <= 17.0) {
                      y_pred += 2.111605817838159;
                    } else {
                      y_pred += 7.3377958033437505;
                    }
                  } else {
                    if (x[0] <= 1591528960.0) {
                      y_pred += 54.47592072205556;
                    } else {
                      y_pred += 5.172910992869135;
                    }
                  }
                } else {
                  if (x[1] <= 421.375) {
                    if (x[0] <= 1592334016.0) {
                      y_pred += 11.415930691761904;
                    } else {
                      y_pred += 5.37639720575;
                    }
                  } else {
                    if (x[0] <= 1592096832.0) {
                      y_pred += 13.262365286898879;
                    } else {
                      y_pred += 17.66867313469231;
                    }
                  }
                }
              } else {
                if (x[1] <= 3136.5) {
                  if (x[1] <= 1140.5714111328125) {
                    y_pred += 79.52443958;
                  } else {
                    if (x[0] <= 1589774848.0) {
                      y_pred += 13.14192787768;
                    } else {
                      y_pred += 23.954351517614594;
                    }
                  }
                } else {
                  if (x[0] <= 1591770112.0) {
                    if (x[0] <= 1590558272.0) {
                      y_pred += 39.834420776;
                    } else {
                      y_pred += 28.196397724782614;
                    }
                  } else {
                    if (x[1] <= 3296.294677734375) {
                      y_pred += 58.338544745;
                    } else {
                      y_pred += 44.45887592555556;
                    }
                  }
                }
              }
            } else {
              if (x[1] <= 7277.428466796875) {
                if (x[1] <= 4971.142822265625) {
                  if (x[1] <= 3607.6875) {
                    if (x[1] <= 3583.0892333984375) {
                      y_pred += 65.98658598;
                    } else {
                      y_pred += 86.22060959;
                    }
                  } else {
                    if (x[1] <= 4135.321533203125) {
                      y_pred += 37.791783779655184;
                    } else {
                      y_pred += 45.363656777466666;
                    }
                  }
                } else {
                  if (x[1] <= 6160.357177734375) {
                    if (x[0] <= 1590523200.0) {
                      y_pred += 45.5233753;
                    } else {
                      y_pred += 58.90482025317648;
                    }
                  } else {
                    if (x[0] <= 1590169472.0) {
                      y_pred += 70.44112598076923;
                    } else {
                      y_pred += 61.0270187944144;
                    }
                  }
                }
              } else {
                if (x[1] <= 10079.0625) {
                  if (x[1] <= 8426.0712890625) {
                    if (x[1] <= 8399.1875) {
                      y_pred += 71.32967050173332;
                    } else {
                      y_pred += 53.531054944000005;
                    }
                  } else {
                    if (x[0] <= 1590134400.0) {
                      y_pred += 80.8570261077143;
                    } else {
                      y_pred += 74.1937846074359;
                    }
                  }
                } else {
                  if (x[0] <= 1591345344.0) {
                    if (x[0] <= 1590000320.0) {
                      y_pred += 83.16894804285714;
                    } else {
                      y_pred += 86.03549072833334;
                    }
                  } else {
                    if (x[0] <= 1591592896.0) {
                      y_pred += 72.6894066875;
                    } else {
                      y_pred += 83.56826710281251;
                    }
                  }
                }
              }
            }

            // tree #15
            if (x[1] <= 3164.0) {
              if (x[1] <= 713.4285583496094) {
                if (x[1] <= 24.4375) {
                  if (x[0] <= 1592091456.0) {
                    if (x[0] <= 1591224320.0) {
                      y_pred += 1.880901922720679;
                    } else {
                      y_pred += 3.391007624741025;
                    }
                  } else {
                    if (x[0] <= 1592131968.0) {
                      y_pred += 66.14937941033334;
                    } else {
                      y_pred += 2.4480104099703683;
                    }
                  }
                } else {
                  if (x[0] <= 1592376768.0) {
                    if (x[0] <= 1591036672.0) {
                      y_pred += 9.30736540956383;
                    } else {
                      y_pred += 11.930023779935485;
                    }
                  } else {
                    if (x[0] <= 1592397504.0) {
                      y_pred += 5.725938605;
                    } else {
                      y_pred += 4.159925233;
                    }
                  }
                }
              } else {
                if (x[1] <= 1995.7857055664062) {
                  if (x[1] <= 928.7142944335938) {
                    if (x[1] <= 914.6428527832031) {
                      y_pred += 15.928156938033332;
                    } else {
                      y_pred += 7.082305676;
                    }
                  } else {
                    if (x[0] <= 1591253120.0) {
                      y_pred += 17.316988624763887;
                    } else {
                      y_pred += 21.525430185014084;
                    }
                  }
                } else {
                  if (x[0] <= 1592272320.0) {
                    if (x[0] <= 1591858304.0) {
                      y_pred += 26.66012922307895;
                    } else {
                      y_pred += 33.25572862;
                    }
                  } else {
                    y_pred += 14.92179701;
                  }
                }
              }
            } else {
              if (x[1] <= 6152.0712890625) {
                if (x[1] <= 5225.740966796875) {
                  if (x[1] <= 3166.1429443359375) {
                    y_pred += 89.87137471;
                  } else {
                    if (x[1] <= 4080.9107666015625) {
                      y_pred += 35.455382117345124;
                    } else {
                      y_pred += 43.72284147794641;
                    }
                  }
                } else {
                  if (x[1] <= 5993.3125) {
                    if (x[0] <= 1591760704.0) {
                      y_pred += 53.38455054702702;
                    } else {
                      y_pred += 65.576407941;
                    }
                  } else {
                    if (x[1] <= 6117.678466796875) {
                      y_pred += 40.32925188;
                    } else {
                      y_pred += 52.34561663;
                    }
                  }
                }
              } else {
                if (x[1] <= 8470.0) {
                  if (x[0] <= 1589705984.0) {
                    if (x[0] <= 1589532288.0) {
                      y_pred += 83.57530320624998;
                    } else {
                      y_pred += 74.15776496526315;
                    }
                  } else {
                    if (x[0] <= 1591764736.0) {
                      y_pred += 64.21671038816757;
                    } else {
                      y_pred += 72.69866450984371;
                    }
                  }
                } else {
                  if (x[1] <= 10407.5) {
                    if (x[1] <= 8986.1875) {
                      y_pred += 79.23898823057692;
                    } else {
                      y_pred += 74.93160861464914;
                    }
                  } else {
                    if (x[1] <= 12445.3037109375) {
                      y_pred += 83.61944989192001;
                    } else {
                      y_pred += 88.87649949411764;
                    }
                  }
                }
              }
            }

            // tree #16
            if (x[1] <= 3310.794677734375) {
              if (x[1] <= 713.4285583496094) {
                if (x[1] <= 24.4375) {
                  if (x[0] <= 1591486656.0) {
                    if (x[0] <= 1591050624.0) {
                      y_pred += 1.5644912201769228;
                    } else {
                      y_pred += 2.5432660483546496;
                    }
                  } else {
                    if (x[0] <= 1591528064.0) {
                      y_pred += 58.316655343;
                    } else {
                      y_pred += 3.9949049502709504;
                    }
                  }
                } else {
                  if (x[1] <= 252.35713958740234) {
                    if (x[1] <= 229.375) {
                      y_pred += 9.375618643666668;
                    } else {
                      y_pred += 2.2429776506666665;
                    }
                  } else {
                    if (x[1] <= 608.8928527832031) {
                      y_pred += 12.595977011265626;
                    } else {
                      y_pred += 9.110100902931034;
                    }
                  }
                }
              } else {
                if (x[1] <= 1913.5) {
                  if (x[0] <= 1589772992.0) {
                    if (x[0] <= 1589740160.0) {
                      y_pred += 17.84173875941176;
                    } else {
                      y_pred += 3.83361141;
                    }
                  } else {
                    if (x[0] <= 1590019200.0) {
                      y_pred += 27.3056533424;
                    } else {
                      y_pred += 16.896131360692305;
                    }
                  }
                } else {
                  if (x[0] <= 1592101312.0) {
                    if (x[0] <= 1589554816.0) {
                      y_pred += 51.87084277;
                    } else {
                      y_pred += 25.723040507217387;
                    }
                  } else {
                    if (x[0] <= 1592297088.0) {
                      y_pred += 47.82746855;
                    } else {
                      y_pred += 21.650792380000002;
                    }
                  }
                }
              }
            } else {
              if (x[1] <= 7202.625) {
                if (x[1] <= 5275.625) {
                  if (x[0] <= 1590443072.0) {
                    if (x[0] <= 1590085312.0) {
                      y_pred += 42.05866661181818;
                    } else {
                      y_pred += 25.992860943461533;
                    }
                  } else {
                    if (x[0] <= 1590569984.0) {
                      y_pred += 59.86007446200001;
                    } else {
                      y_pred += 47.04918402068374;
                    }
                  }
                } else {
                  if (x[0] <= 1591762048.0) {
                    if (x[1] <= 5650.0625) {
                      y_pred += 47.245295500000005;
                    } else {
                      y_pred += 59.387414305833346;
                    }
                  } else {
                    if (x[0] <= 1591867328.0) {
                      y_pred += 76.37365753631579;
                    } else {
                      y_pred += 64.37985145785716;
                    }
                  }
                }
              } else {
                if (x[1] <= 10284.3125) {
                  if (x[0] <= 1592195008.0) {
                    if (x[0] <= 1589702848.0) {
                      y_pred += 82.26189209449998;
                    } else {
                      y_pred += 71.95980944450594;
                    }
                  } else {
                    if (x[1] <= 8826.0625) {
                      y_pred += 86.25850514916665;
                    } else {
                      y_pred += 80.36036386;
                    }
                  }
                } else {
                  if (x[1] <= 12205.10693359375) {
                    if (x[1] <= 11976.45556640625) {
                      y_pred += 83.44467321418034;
                    } else {
                      y_pred += 76.15666455750001;
                    }
                  } else {
                    if (x[1] <= 13298.8837890625) {
                      y_pred += 88.0918439080645;
                    } else {
                      y_pred += 83.45244881;
                    }
                  }
                }
              }
            }

            // tree #17
            if (x[1] <= 3574.78564453125) {
              if (x[1] <= 713.4285583496094) {
                if (x[1] <= 16.8125) {
                  if (x[0] <= 1592092352.0) {
                    if (x[0] <= 1591224768.0) {
                      y_pred += 1.7227451416106188;
                    } else {
                      y_pred += 3.581939185026665;
                    }
                  } else {
                    if (x[0] <= 1592131968.0) {
                      y_pred += 80.6937886309231;
                    } else {
                      y_pred += 1.9989354765344836;
                    }
                  }
                } else {
                  if (x[0] <= 1591037120.0) {
                    if (x[0] <= 1590777472.0) {
                      y_pred += 10.476574016529414;
                    } else {
                      y_pred += 6.389663884894737;
                    }
                  } else {
                    if (x[0] <= 1592354304.0) {
                      y_pred += 12.984179213562504;
                    } else {
                      y_pred += 4.904735613;
                    }
                  }
                }
              } else {
                if (x[1] <= 1990.7142944335938) {
                  if (x[0] <= 1591061376.0) {
                    if (x[1] <= 1823.875) {
                      y_pred += 13.909713766499998;
                    } else {
                      y_pred += 21.5651070528125;
                    }
                  } else {
                    if (x[0] <= 1591549632.0) {
                      y_pred += 29.048172620869565;
                    } else {
                      y_pred += 18.67229892195;
                    }
                  }
                } else {
                  if (x[0] <= 1591756160.0) {
                    if (x[0] <= 1590823744.0) {
                      y_pred += 23.25949236930556;
                    } else {
                      y_pred += 28.112116953529412;
                    }
                  } else {
                    if (x[1] <= 2276.3125) {
                      y_pred += 72.07975115666666;
                    } else {
                      y_pred += 32.3614449017647;
                    }
                  }
                }
              }
            } else {
              if (x[1] <= 7380.5) {
                if (x[1] <= 4997.5625) {
                  if (x[1] <= 3601.8125) {
                    if (x[1] <= 3583.0892333984375) {
                      y_pred += 65.98658598;
                    } else {
                      y_pred += 86.22060959;
                    }
                  } else {
                    if (x[1] <= 4256.6875) {
                      y_pred += 38.51338317356165;
                    } else {
                      y_pred += 46.23639077950819;
                    }
                  }
                } else {
                  if (x[0] <= 1591762496.0) {
                    if (x[0] <= 1590135744.0) {
                      y_pred += 63.25619193089285;
                    } else {
                      y_pred += 53.76742653956523;
                    }
                  } else {
                    if (x[0] <= 1591949696.0) {
                      y_pred += 73.91995872208334;
                    } else {
                      y_pred += 61.86155526230769;
                    }
                  }
                }
              } else {
                if (x[1] <= 9320.25) {
                  if (x[0] <= 1589878784.0) {
                    if (x[0] <= 1589784768.0) {
                      y_pred += 76.40674840277777;
                    } else {
                      y_pred += 82.80534643399999;
                    }
                  } else {
                    if (x[0] <= 1590728896.0) {
                      y_pred += 64.40581371458333;
                    } else {
                      y_pred += 73.32993279163932;
                    }
                  }
                } else {
                  if (x[1] <= 10130.28564453125) {
                    if (x[1] <= 9801.09814453125) {
                      y_pred += 80.81438055928572;
                    } else {
                      y_pred += 71.55592382333333;
                    }
                  } else {
                    if (x[0] <= 1590000320.0) {
                      y_pred += 77.20167248172416;
                    } else {
                      y_pred += 83.31103038691784;
                    }
                  }
                }
              }
            }

            // tree #18
            if (x[1] <= 3271.294677734375) {
              if (x[1] <= 256.16963958740234) {
                if (x[0] <= 1592091456.0) {
                  if (x[1] <= 17.0) {
                    if (x[0] <= 1591486208.0) {
                      y_pred += 1.9009424627264635;
                    } else {
                      y_pred += 4.199278809581397;
                    }
                  } else {
                    if (x[1] <= 55.276784896850586) {
                      y_pred += 13.215474263333334;
                    } else {
                      y_pred += 7.543524541333335;
                    }
                  }
                } else {
                  if (x[0] <= 1592131072.0) {
                    if (x[0] <= 1592104512.0) {
                      y_pred += 7.714421814666667;
                    } else {
                      y_pred += 87.5700469775;
                    }
                  } else {
                    if (x[0] <= 1592230528.0) {
                      y_pred += 4.67341483705;
                    } else {
                      y_pred += 1.1401278307468357;
                    }
                  }
                }
              } else {
                if (x[1] <= 1134.2946166992188) {
                  if (x[1] <= 735.6428527832031) {
                    if (x[1] <= 711.1160583496094) {
                      y_pred += 12.586751780863636;
                    } else {
                      y_pred += 8.416082145181818;
                    }
                  } else {
                    if (x[1] <= 1076.7857055664062) {
                      y_pred += 16.022965772050846;
                    } else {
                      y_pred += 10.044912516625;
                    }
                  }
                } else {
                  if (x[1] <= 1144.9196166992188) {
                    y_pred += 79.52443958;
                  } else {
                    if (x[1] <= 2553.455322265625) {
                      y_pred += 19.649209514232805;
                    } else {
                      y_pred += 27.400933671741935;
                    }
                  }
                }
              }
            } else {
              if (x[1] <= 5599.803466796875) {
                if (x[1] <= 4347.375) {
                  if (x[1] <= 3283.3125) {
                    y_pred += 75.09953158;
                  } else {
                    if (x[0] <= 1589904448.0) {
                      y_pred += 46.61184741117648;
                    } else {
                      y_pred += 38.389638203684214;
                    }
                  }
                } else {
                  if (x[1] <= 4601.446533203125) {
                    if (x[1] <= 4576.14306640625) {
                      y_pred += 56.52655717307693;
                    } else {
                      y_pred += 85.55850918;
                    }
                  } else {
                    if (x[1] <= 5022.1875) {
                      y_pred += 42.427576314285716;
                    } else {
                      y_pred += 53.97121001267857;
                    }
                  }
                }
              } else {
                if (x[1] <= 9361.0712890625) {
                  if (x[1] <= 7341.0625) {
                    if (x[0] <= 1591762496.0) {
                      y_pred += 58.79934060606668;
                    } else {
                      y_pred += 69.687277786875;
                    }
                  } else {
                    if (x[0] <= 1591591488.0) {
                      y_pred += 69.54021654313188;
                    } else {
                      y_pred += 76.01124233018183;
                    }
                  }
                } else {
                  if (x[1] <= 10130.28564453125) {
                    if (x[1] <= 10087.60400390625) {
                      y_pred += 77.82873169968254;
                    } else {
                      y_pred += 56.679294645;
                    }
                  } else {
                    if (x[0] <= 1590689280.0) {
                      y_pred += 85.6937140359155;
                    } else {
                      y_pred += 82.30711812842105;
                    }
                  }
                }
              }
            }

            // tree #19
            if (x[1] <= 3324.267822265625) {
              if (x[1] <= 320.5892791748047) {
                if (x[0] <= 1591485760.0) {
                  if (x[1] <= 24.4375) {
                    if (x[0] <= 1591225216.0) {
                      y_pred += 1.7310471687780955;
                    } else {
                      y_pred += 2.8521716265447155;
                    }
                  } else {
                    if (x[0] <= 1591036672.0) {
                      y_pred += 7.119950955233333;
                    } else {
                      y_pred += 11.9545800308;
                    }
                  }
                } else {
                  if (x[0] <= 1591529408.0) {
                    if (x[0] <= 1591501056.0) {
                      y_pred += 5.6192592995;
                    } else {
                      y_pred += 84.56895057;
                    }
                  } else {
                    if (x[0] <= 1592091904.0) {
                      y_pred += 2.0524825020216455;
                    } else {
                      y_pred += 8.350143278097013;
                    }
                  }
                }
              } else {
                if (x[1] <= 1995.7857055664062) {
                  if (x[1] <= 750.2946472167969) {
                    if (x[1] <= 331.0267791748047) {
                      y_pred += 24.98573574;
                    } else {
                      y_pred += 12.087825784244188;
                    }
                  } else {
                    if (x[0] <= 1589773504.0) {
                      y_pred += 11.89671597205;
                    } else {
                      y_pred += 18.37121638788049;
                    }
                  }
                } else {
                  if (x[0] <= 1590823296.0) {
                    if (x[1] <= 2373.4910888671875) {
                      y_pred += 16.685175164999997;
                    } else {
                      y_pred += 21.866601303812494;
                    }
                  } else {
                    if (x[0] <= 1592107648.0) {
                      y_pred += 29.263887044615387;
                    } else {
                      y_pred += 44.707075510909085;
                    }
                  }
                }
              }
            } else {
              if (x[1] <= 6559.571533203125) {
                if (x[1] <= 5272.428466796875) {
                  if (x[1] <= 4135.321533203125) {
                    if (x[1] <= 3853.75) {
                      y_pred += 44.491063130408165;
                    } else {
                      y_pred += 33.77213316134615;
                    }
                  } else {
                    if (x[1] <= 4805.5) {
                      y_pred += 48.152918404814805;
                    } else {
                      y_pred += 41.35295419999999;
                    }
                  }
                } else {
                  if (x[0] <= 1590871488.0) {
                    if (x[0] <= 1590342720.0) {
                      y_pred += 57.17563964124999;
                    } else {
                      y_pred += 41.63516459826087;
                    }
                  } else {
                    if (x[0] <= 1591085248.0) {
                      y_pred += 75.99135589444444;
                    } else {
                      y_pred += 61.241739205555575;
                    }
                  }
                }
              } else {
                if (x[1] <= 8666.78564453125) {
                  if (x[0] <= 1591769728.0) {
                    if (x[0] <= 1589619136.0) {
                      y_pred += 79.04089053857145;
                    } else {
                      y_pred += 64.69086439558824;
                    }
                  } else {
                    if (x[0] <= 1592381696.0) {
                      y_pred += 76.30435819660377;
                    } else {
                      y_pred += 58.24442573000001;
                    }
                  }
                } else {
                  if (x[1] <= 10520.9375) {
                    if (x[0] <= 1590045760.0) {
                      y_pred += 81.78534841153845;
                    } else {
                      y_pred += 75.02738191133857;
                    }
                  } else {
                    if (x[0] <= 1590124992.0) {
                      y_pred += 77.71378746115386;
                    } else {
                      y_pred += 84.46739593227271;
                    }
                  }
                }
              }
            }

            // tree #20
            if (x[1] <= 3148.7142333984375) {
              if (x[1] <= 735.6428527832031) {
                if (x[0] <= 1592092352.0) {
                  if (x[1] <= 10.5) {
                    if (x[0] <= 1591485760.0) {
                      y_pred += 1.9491484613522863;
                    } else {
                      y_pred += 4.335876793213393;
                    }
                  } else {
                    if (x[1] <= 251.125) {
                      y_pred += 8.547330425263157;
                    } else {
                      y_pred += 12.08932575452809;
                    }
                  }
                } else {
                  if (x[0] <= 1592130176.0) {
                    if (x[0] <= 1592105856.0) {
                      y_pred += 11.9247279744;
                    } else {
                      y_pred += 86.94277105285714;
                    }
                  } else {
                    if (x[1] <= 26.625) {
                      y_pred += 2.3395667777207207;
                    } else {
                      y_pred += 11.979682697111109;
                    }
                  }
                }
              } else {
                if (x[1] <= 1616.2857055664062) {
                  if (x[0] <= 1591167168.0) {
                    if (x[1] <= 1598.2857055664062) {
                      y_pred += 14.620616008108692;
                    } else {
                      y_pred += 6.892763918285715;
                    }
                  } else {
                    if (x[0] <= 1591549632.0) {
                      y_pred += 31.29932449666667;
                    } else {
                      y_pred += 16.82529152483721;
                    }
                  }
                } else {
                  if (x[0] <= 1590949312.0) {
                    if (x[0] <= 1589773952.0) {
                      y_pred += 14.730912905600002;
                    } else {
                      y_pred += 21.77334352088679;
                    }
                  } else {
                    if (x[1] <= 1716.5625) {
                      y_pred += 39.19114323333333;
                    } else {
                      y_pred += 27.287230720121954;
                    }
                  }
                }
              }
            } else {
              if (x[1] <= 6144.22314453125) {
                if (x[1] <= 4182.25) {
                  if (x[1] <= 3173.0) {
                    if (x[1] <= 3162.5) {
                      y_pred += 36.16386153;
                    } else {
                      y_pred += 89.87137471;
                    }
                  } else {
                    if (x[1] <= 3306.7857666015625) {
                      y_pred += 27.638967954;
                    } else {
                      y_pred += 37.38832787583334;
                    }
                  }
                } else {
                  if (x[1] <= 4937.09814453125) {
                    if (x[1] <= 4616.5625) {
                      y_pred += 53.042316777959186;
                    } else {
                      y_pred += 37.359152414;
                    }
                  } else {
                    if (x[1] <= 6088.0) {
                      y_pred += 56.94925950596493;
                    } else {
                      y_pred += 43.550886081;
                    }
                  }
                }
              } else {
                if (x[1] <= 9556.42822265625) {
                  if (x[1] <= 7424.509033203125) {
                    if (x[0] <= 1592284096.0) {
                      y_pred += 61.15588333920865;
                    } else {
                      y_pred += 75.39663167380952;
                    }
                  } else {
                    if (x[0] <= 1590781056.0) {
                      y_pred += 66.95691604025208;
                    } else {
                      y_pred += 74.63339620086671;
                    }
                  }
                } else {
                  if (x[0] <= 1592036544.0) {
                    if (x[1] <= 11434.0712890625) {
                      y_pred += 82.11928962814817;
                    } else {
                      y_pred += 86.00420272808219;
                    }
                  } else {
                    if (x[0] <= 1592118464.0) {
                      y_pred += 57.986680220000004;
                    } else {
                      y_pred += 86.71783087833334;
                    }
                  }
                }
              }
            }

            // tree #21
            if (x[1] <= 3519.125) {
              if (x[1] <= 735.6428527832031) {
                if (x[1] <= 10.5) {
                  if (x[0] <= 1592091008.0) {
                    if (x[0] <= 1591224768.0) {
                      y_pred += 1.897975834731671;
                    } else {
                      y_pred += 3.448745097247788;
                    }
                  } else {
                    if (x[0] <= 1592131520.0) {
                      y_pred += 70.62435544742858;
                    } else {
                      y_pred += 1.8046607885275594;
                    }
                  }
                } else {
                  if (x[1] <= 659.8571472167969) {
                    if (x[1] <= 651.125) {
                      y_pred += 10.991279222169812;
                    } else {
                      y_pred += 3.6326871695;
                    }
                  } else {
                    if (x[0] <= 1589783872.0) {
                      y_pred += 7.2249165685;
                    } else {
                      y_pred += 14.294628619375;
                    }
                  }
                }
              } else {
                if (x[1] <= 1699.5714721679688) {
                  if (x[0] <= 1591167168.0) {
                    if (x[0] <= 1590924544.0) {
                      y_pred += 15.765454973605266;
                    } else {
                      y_pred += 9.090144262333334;
                    }
                  } else {
                    if (x[0] <= 1591550080.0) {
                      y_pred += 28.27455385846154;
                    } else {
                      y_pred += 18.232822122038456;
                    }
                  }
                } else {
                  if (x[1] <= 1716.5625) {
                    if (x[0] <= 1591849344.0) {
                      y_pred += 83.29409284428571;
                    } else {
                      y_pred += 36.85897222;
                    }
                  } else {
                    if (x[1] <= 1995.7857055664062) {
                      y_pred += 18.889620104113636;
                    } else {
                      y_pred += 28.471082538552146;
                    }
                  }
                }
              }
            } else {
              if (x[1] <= 6562.21435546875) {
                if (x[1] <= 5247.5) {
                  if (x[1] <= 3601.8125) {
                    if (x[0] <= 1590573120.0) {
                      y_pred += 82.173804868;
                    } else {
                      y_pred += 36.18097332333334;
                    }
                  } else {
                    if (x[1] <= 3973.169677734375) {
                      y_pred += 34.162015412432424;
                    } else {
                      y_pred += 43.652501307666654;
                    }
                  }
                } else {
                  if (x[0] <= 1590901632.0) {
                    if (x[0] <= 1590257216.0) {
                      y_pred += 54.939970912380964;
                    } else {
                      y_pred += 45.20544012351352;
                    }
                  } else {
                    if (x[0] <= 1591084800.0) {
                      y_pred += 70.105221548125;
                    } else {
                      y_pred += 57.02626880205129;
                    }
                  }
                }
              } else {
                if (x[1] <= 10391.02685546875) {
                  if (x[1] <= 7341.0625) {
                    if (x[0] <= 1591683264.0) {
                      y_pred += 59.15947640911765;
                    } else {
                      y_pred += 76.43094835500001;
                    }
                  } else {
                    if (x[0] <= 1591593344.0) {
                      y_pred += 70.74673756681818;
                    } else {
                      y_pred += 76.5730051892771;
                    }
                  }
                } else {
                  if (x[1] <= 11438.642578125) {
                    if (x[1] <= 11322.34521484375) {
                      y_pred += 82.50961199609377;
                    } else {
                      y_pred += 70.211540314;
                    }
                  } else {
                    if (x[0] <= 1591208128.0) {
                      y_pred += 86.8960538925;
                    } else {
                      y_pred += 83.44750904647059;
                    }
                  }
                }
              }
            }

            // tree #22
            if (x[1] <= 3574.78564453125) {
              if (x[1] <= 763.4375) {
                if (x[1] <= 30.928571701049805) {
                  if (x[0] <= 1591225216.0) {
                    if (x[0] <= 1589725376.0) {
                      y_pred += 3.1214494617701147;
                    } else {
                      y_pred += 1.5193907064628374;
                    }
                  } else {
                    if (x[0] <= 1591536640.0) {
                      y_pred += 8.986647312304052;
                    } else {
                      y_pred += 2.813965146115486;
                    }
                  }
                } else {
                  if (x[1] <= 419.875) {
                    if (x[1] <= 49.071428298950195) {
                      y_pred += 20.10705208;
                    } else {
                      y_pred += 10.130321128849996;
                    }
                  } else {
                    if (x[1] <= 533.4732055664062) {
                      y_pred += 16.416442703866664;
                    } else {
                      y_pred += 11.373509189352944;
                    }
                  }
                }
              } else {
                if (x[1] <= 1939.875) {
                  if (x[0] <= 1591210816.0) {
                    if (x[0] <= 1590907008.0) {
                      y_pred += 16.144406947766665;
                    } else {
                      y_pred += 10.650417370227272;
                    }
                  } else {
                    if (x[0] <= 1591550080.0) {
                      y_pred += 29.000209086666672;
                    } else {
                      y_pred += 18.520784600357143;
                    }
                  }
                } else {
                  if (x[0] <= 1591756160.0) {
                    if (x[0] <= 1589772608.0) {
                      y_pred += 17.504096454;
                    } else {
                      y_pred += 26.91738911852631;
                    }
                  } else {
                    if (x[1] <= 3323.482177734375) {
                      y_pred += 33.744102737435895;
                    } else {
                      y_pred += 43.45761581000001;
                    }
                  }
                }
              }
            } else {
              if (x[1] <= 7212.6875) {
                if (x[1] <= 5225.740966796875) {
                  if (x[1] <= 3601.8125) {
                    if (x[0] <= 1590875968.0) {
                      y_pred += 76.10359778499999;
                    } else {
                      y_pred += 36.51999397;
                    }
                  } else {
                    if (x[0] <= 1590556032.0) {
                      y_pred += 36.36289470612902;
                    } else {
                      y_pred += 47.329040883157894;
                    }
                  }
                } else {
                  if (x[0] <= 1589903552.0) {
                    if (x[1] <= 5710.919677734375) {
                      y_pred += 52.622545214;
                    } else {
                      y_pred += 69.68378949769229;
                    }
                  } else {
                    if (x[0] <= 1590723904.0) {
                      y_pred += 49.829325027045456;
                    } else {
                      y_pred += 59.19920801208052;
                    }
                  }
                }
              } else {
                if (x[1] <= 9604.16943359375) {
                  if (x[0] <= 1590781952.0) {
                    if (x[0] <= 1590225280.0) {
                      y_pred += 76.08128799333333;
                    } else {
                      y_pred += 61.17680347412698;
                    }
                  } else {
                    if (x[1] <= 8540.1875) {
                      y_pred += 72.07789957683542;
                    } else {
                      y_pred += 78.37974540272727;
                    }
                  }
                } else {
                  if (x[1] <= 10793.0) {
                    if (x[1] <= 9801.09814453125) {
                      y_pred += 87.33784924199999;
                    } else {
                      y_pred += 77.81251007961541;
                    }
                  } else {
                    if (x[0] <= 1590000320.0) {
                      y_pred += 78.10985725;
                    } else {
                      y_pred += 85.78032415350513;
                    }
                  }
                }
              }
            }

            // tree #23
            if (x[1] <= 3652.8839111328125) {
              if (x[1] <= 763.4375) {
                if (x[0] <= 1592093248.0) {
                  if (x[1] <= 16.8125) {
